{"gradients/critic1.fc3.bias": {"_type": "histogram", "values": [1.0, 0.0, 0.0, 0.0, 0.0, 0.0, 0.0, 0.0, 0.0, 0.0, 0.0, 0.0, 0.0, 0.0, 0.0, 0.0, 0.0, 0.0, 0.0, 0.0, 0.0, 0.0, 0.0, 0.0, 0.0, 0.0, 0.0, 0.0, 0.0, 0.0, 0.0, 0.0, 0.0, 0.0, 0.0, 0.0, 0.0, 0.0, 0.0, 0.0, 0.0, 0.0, 0.0, 0.0, 0.0, 0.0, 0.0, 0.0, 0.0, 0.0, 0.0, 0.0, 0.0, 0.0, 0.0, 0.0, 0.0, 0.0, 0.0, 0.0, 0.0, 0.0, 0.0, 1.0], "bins": [0.054682765156030655, 0.055581286549568176, 0.056479811668395996, 0.05737833306193352, 0.05827685445547104, 0.05917537957429886, 0.06007390096783638, 0.0609724223613739, 0.06187094375491142, 0.06276946514844894, 0.06366799026727676, 0.06456651538610458, 0.0654650330543518, 0.06636355817317963, 0.06726208329200745, 0.06816060096025467, 0.06905912607908249, 0.06995764374732971, 0.07085616886615753, 0.07175469398498535, 0.07265321910381317, 0.0735517367720604, 0.07445026189088821, 0.07534877955913544, 0.07624730467796326, 0.07714582979679108, 0.0780443474650383, 0.07894287258386612, 0.07984139770269394, 0.08073991537094116, 0.08163844048976898, 0.0825369656085968, 0.08343548327684402, 0.08433400839567184, 0.08523252606391907, 0.08613105118274689, 0.08702957630157471, 0.08792810142040253, 0.08882661908864975, 0.08972514420747757, 0.09062366187572479, 0.09152218699455261, 0.09242071211338043, 0.09331923723220825, 0.09421775490045547, 0.0951162800192833, 0.09601479768753052, 0.09691332280635834, 0.09781184792518616, 0.09871036559343338, 0.0996088907122612, 0.10050741583108902, 0.10140593349933624, 0.10230445861816406, 0.10320298373699188, 0.1041015014052391, 0.10500002652406693, 0.10589854419231415, 0.10679706931114197, 0.10769559442996979, 0.10859411209821701, 0.10949263721704483, 0.11039116233587265, 0.11128968000411987, 0.11218820512294769]}, "_timestamp": 1684160412.5381582, "gradients/critic1.fc3.weight": {"_type": "histogram", "values": [248.0, 0.0, 0.0, 0.0, 0.0, 0.0, 0.0, 0.0, 0.0, 1.0, 1.0, 1.0, 1.0, 0.0, 0.0, 3.0, 3.0, 3.0, 2.0, 5.0, 6.0, 9.0, 19.0, 22.0, 17.0, 6.0, 14.0, 10.0, 5.0, 2.0, 2.0, 1.0, 2.0, 2.0, 1.0, 0.0, 4.0, 0.0, 5.0, 0.0, 0.0, 3.0, 6.0, 5.0, 5.0, 6.0, 14.0, 10.0, 8.0, 11.0, 5.0, 10.0, 4.0, 7.0, 5.0, 6.0, 3.0, 2.0, 1.0, 0.0, 3.0, 1.0, 1.0, 1.0], "bins": [0.0, 0.002292647957801819, 0.004585295915603638, 0.0068779438734054565, 0.009170591831207275, 0.011463239789009094, 0.013755887746810913, 0.016048535704612732, 0.01834118366241455, 0.02063383162021637, 0.02292647957801819, 0.025219127535820007, 0.027511775493621826, 0.029804423451423645, 0.032097071409225464, 0.03438971936702728, 0.0366823673248291, 0.03897501528263092, 0.04126766324043274, 0.04356031119823456, 0.04585295915603638, 0.048145607113838196, 0.050438255071640015, 0.052730903029441833, 0.05502355098724365, 0.05731619894504547, 0.05960884690284729, 0.06190149486064911, 0.06419414281845093, 0.06648679077625275, 0.06877943873405457, 0.07107208669185638, 0.0733647346496582, 0.07565738260746002, 0.07795003056526184, 0.08024267852306366, 0.08253532648086548, 0.0848279744386673, 0.08712062239646912, 0.08941327035427094, 0.09170591831207275, 0.09399856626987457, 0.09629121422767639, 0.09858386218547821, 0.10087651014328003, 0.10316915810108185, 0.10546180605888367, 0.10775445401668549, 0.1100471019744873, 0.11233974993228912, 0.11463239789009094, 0.11692504584789276, 0.11921769380569458, 0.1215103417634964, 0.12380298972129822, 0.12609563767910004, 0.12838828563690186, 0.13068093359470367, 0.1329735815525055, 0.1352662295103073, 0.13755887746810913, 0.13985152542591095, 0.14214417338371277, 0.1444368213415146, 0.1467294692993164]}, "gradients/critic1.fc2.bias": {"_type": "histogram", "values": [1.0, 0.0, 0.0, 0.0, 0.0, 0.0, 0.0, 0.0, 0.0, 0.0, 0.0, 0.0, 0.0, 0.0, 0.0, 0.0, 0.0, 0.0, 0.0, 0.0, 0.0, 0.0, 0.0, 0.0, 0.0, 0.0, 0.0, 0.0, 0.0, 0.0, 124.0, 0.0, 0.0, 0.0, 0.0, 0.0, 0.0, 0.0, 0.0, 0.0, 0.0, 0.0, 0.0, 0.0, 0.0, 0.0, 0.0, 0.0, 0.0, 0.0, 0.0, 0.0, 1.0, 2.0, 7.0, 13.0, 14.0, 18.0, 26.0, 17.0, 17.0, 11.0, 2.0, 3.0], "bins": [-0.008582928217947483, -0.008305108174681664, -0.008027289062738419, -0.007749469485133886, -0.007471649907529354, -0.0071938298642635345, -0.006916010286659002, -0.00663819070905447, -0.006360371131449938, -0.006082551553845406, -0.005804731976240873, -0.005526912398636341, -0.0052490923553705215, -0.004971273243427277, -0.004693453200161457, -0.004415633622556925, -0.004137814044952393, -0.0038599944673478603, -0.003582174889743328, -0.003304355312138796, -0.0030265357345342636, -0.002748715691268444, -0.002470896113663912, -0.0021930765360593796, -0.0019152569584548473, -0.001637437380850315, -0.0013596178032457829, -0.0010817982256412506, -0.0008039781823754311, -0.0005261590704321861, -0.0002483390271663666, 2.9480084776878357e-05, 0.0003072991967201233, 0.0005851192399859428, 0.0008629383519291878, 0.0011407583951950073, 0.0014185775071382523, 0.0016963975504040718, 0.001974217128008604, 0.0022520367056131363, 0.0025298562832176685, 0.0028076758608222008, 0.003085495438426733, 0.0033633150160312653, 0.003641135059297085, 0.003918954636901617, 0.004196774214506149, 0.0044745937921106815, 0.004752413369715214, 0.005030232947319746, 0.005308052524924278, 0.005585872568190098, 0.005863691680133343, 0.006141511723399162, 0.0064193313010036945, 0.006697150878608227, 0.006974970456212759, 0.007252790033817291, 0.0075306096114218235, 0.007808429189026356, 0.008086249232292175, 0.00836406834423542, 0.00864188838750124, 0.008919707499444485, 0.009197527542710304]}, "gradients/critic1.fc2.weight": {"_type": "histogram", "values": [2.0, 0.0, 0.0, 0.0, 3.0, 2.0, 1.0, 2.0, 3.0, 2.0, 2.0, 5.0, 1.0, 11.0, 8.0, 6.0, 4.0, 6.0, 9.0, 5.0, 4.0, 8.0, 5.0, 9.0, 3.0, 7.0, 5.0, 5.0, 5.0, 6.0, 5.0, 7.0, 1.0, 44686.0, 733.0, 1853.0, 1165.0, 1336.0, 1863.0, 1332.0, 589.0, 524.0, 546.0, 702.0, 870.0, 973.0, 964.0, 864.0, 778.0, 770.0, 774.0, 795.0, 768.0, 669.0, 572.0, 449.0, 331.0, 233.0, 132.0, 72.0, 33.0, 12.0, 4.0, 2.0], "bins": [-0.005888901650905609, -0.00571215245872736, -0.005535402800887823, -0.005358653608709574, -0.005181904416531324, -0.005005154758691788, -0.004828405566513538, -0.004651656374335289, -0.004474906716495752, -0.004298157524317503, -0.004121407866477966, -0.003944658674299717, -0.0037679094821214676, -0.0035911600571125746, -0.0034144106321036816, -0.003237661439925432, -0.003060912014916539, -0.002884162589907646, -0.002707413397729397, -0.002530663972720504, -0.002353914547711611, -0.0021771653555333614, -0.0020004159305244684, -0.0018236665055155754, -0.001646917313337326, -0.0014701676554977894, -0.00129341846331954, -0.0011166692711412907, -0.000939919613301754, -0.0007631704211235046, -0.0005864212289452553, -0.0004096715711057186, -0.00023292237892746925, -5.6173186749219894e-05, 0.00012057647109031677, 0.00029732566326856613, 0.0004740748554468155, 0.0006508245132863522, 0.0008275737054646015, 0.0010043228976428509, 0.0011810725554823875, 0.001357821747660637, 0.00153457117266953, 0.001711320597678423, 0.0018880697898566723, 0.0020648192148655653, 0.0022415686398744583, 0.0024183178320527077, 0.0025950672570616007, 0.0027718166820704937, 0.002948565874248743, 0.003125315299257636, 0.003302064724266529, 0.0034788139164447784, 0.0036555633414536715, 0.0038323127664625645, 0.004009061958640814, 0.0041858116164803505, 0.0043625608086586, 0.004539310000836849, 0.004716059658676386, 0.004892808850854635, 0.005069558043032885, 0.005246307700872421, 0.005423056893050671]}, "gradients/critic1.fc1.bias": {"_type": "histogram", "values": [1.0, 0.0, 0.0, 0.0, 0.0, 0.0, 3.0, 1.0, 1.0, 0.0, 0.0, 0.0, 0.0, 0.0, 0.0, 1.0, 0.0, 1.0, 1.0, 0.0, 0.0, 1.0, 1.0, 0.0, 1.0, 1.0, 1.0, 0.0, 2.0, 0.0, 0.0, 2.0, 2.0, 3.0, 1.0, 0.0, 1.0, 1.0, 0.0, 0.0, 0.0, 0.0, 0.0, 1.0, 0.0, 0.0, 98.0, 0.0, 0.0, 1.0, 0.0, 0.0, 1.0, 0.0, 0.0, 0.0, 2.0, 8.0, 11.0, 30.0, 36.0, 29.0, 11.0, 2.0], "bins": [-0.11396238952875137, -0.11153677850961685, -0.10911116749048233, -0.1066855639219284, -0.10425995290279388, -0.10183434188365936, -0.09940873086452484, -0.09698311984539032, -0.0945575088262558, -0.09213190525770187, -0.08970629423856735, -0.08728068321943283, -0.08485507220029831, -0.08242946863174438, -0.08000385761260986, -0.07757824659347534, -0.07515263557434082, -0.0727270245552063, -0.07030141353607178, -0.06787580251693726, -0.06545019894838333, -0.06302458792924881, -0.06059897691011429, -0.058173369616270065, -0.055747758597135544, -0.05332214757800102, -0.0508965402841568, -0.04847092926502228, -0.046045318245887756, -0.043619707226753235, -0.04119410365819931, -0.03876849263906479, -0.03634288161993027, -0.033917270600795746, -0.031491659581661224, -0.0290660560131073, -0.02664044499397278, -0.024214833974838257, -0.021789222955703735, -0.019363615661859512, -0.01693800464272499, -0.01451239362359047, -0.012086786329746246, -0.009661175310611725, -0.007235564291477203, -0.00480995699763298, -0.002384345978498459, 4.126131534576416e-05, 0.0024668723344802856, 0.004892483353614807, 0.00731809064745903, 0.009743701666593552, 0.012169310823082924, 0.014594919979572296, 0.017020530998706818, 0.01944614015519619, 0.021871749311685562, 0.024297358468174934, 0.026722967624664307, 0.029148578643798828, 0.03157418966293335, 0.03399979695677757, 0.036425407975912094, 0.03885101526975632, 0.04127662628889084]}, "gradients/critic1.fc1.weight": {"_type": "histogram", "values": [1.0, 1.0, 0.0, 1.0, 1.0, 2.0, 0.0, 0.0, 1.0, 0.0, 0.0, 1.0, 0.0, 0.0, 0.0, 1.0, 0.0, 0.0, 1.0, 1.0, 0.0, 0.0, 0.0, 0.0, 0.0, 1.0, 0.0, 0.0, 0.0, 0.0, 0.0, 0.0, 0.0, 0.0, 0.0, 0.0, 0.0, 7.0, 60.0, 77.0, 12.0, 5.0, 664.0, 7.0, 9.0, 9.0, 24.0, 70.0, 46.0, 2.0, 4.0, 2.0, 2.0, 2.0, 1.0, 0.0, 1.0, 1.0, 0.0, 1.0, 1.0, 2.0, 2.0, 1.0], "bins": [-0.15107271075248718, -0.14751699566841125, -0.14396129548549652, -0.1404055804014206, -0.13684986531734467, -0.13329416513442993, -0.129738450050354, -0.12618273496627808, -0.12262703478336334, -0.11907131969928741, -0.11551561206579208, -0.11195990443229675, -0.10840418934822083, -0.10484848916530609, -0.10129277408123016, -0.09773706644773483, -0.0941813588142395, -0.09062564373016357, -0.08706993609666824, -0.08351422846317291, -0.07995851337909698, -0.07640280574560165, -0.07284709811210632, -0.06929139047861099, -0.06573567539453506, -0.062179967761039734, -0.0586242601275444, -0.055068545043468475, -0.051512837409973145, -0.047957129776477814, -0.04440142214298248, -0.040845707058906555, -0.037289999425411224, -0.033734291791915894, -0.030178576707839966, -0.026622869074344635, -0.023067161440849304, -0.019511453807353973, -0.015955738723278046, -0.012400031089782715, -0.008844323456287384, -0.005288608372211456, -0.0017329007387161255, 0.0018228068947792053, 0.005378514528274536, 0.008934229612350464, 0.012489937245845795, 0.016045644879341125, 0.019601356238126755, 0.023157067596912384, 0.026712775230407715, 0.030268486589193344, 0.033824194222688675, 0.037379905581474304, 0.040935613214969635, 0.044491324573755264, 0.048047035932540894, 0.051602743566036224, 0.055158451199531555, 0.058714162558317184, 0.062269873917102814, 0.06582558155059814, 0.06938128918409348, 0.0729370042681694, 0.07649271190166473]}, "gradients/critic2.fc3.bias": {"_type": "histogram", "values": [1.0, 0.0, 0.0, 0.0, 0.0, 0.0, 0.0, 0.0, 0.0, 0.0, 0.0, 0.0, 0.0, 0.0, 0.0, 0.0, 0.0, 0.0, 0.0, 0.0, 0.0, 0.0, 0.0, 0.0, 0.0, 0.0, 0.0, 0.0, 0.0, 0.0, 0.0, 0.0, 0.0, 0.0, 0.0, 0.0, 0.0, 0.0, 0.0, 0.0, 0.0, 0.0, 0.0, 0.0, 0.0, 0.0, 0.0, 0.0, 0.0, 0.0, 0.0, 0.0, 0.0, 0.0, 0.0, 0.0, 0.0, 0.0, 0.0, 0.0, 0.0, 0.0, 0.0, 1.0], "bins": [0.051696695387363434, 0.05268251523375511, 0.05366833508014679, 0.05465415120124817, 0.05563997104763985, 0.056625790894031525, 0.0576116107404232, 0.05859743058681488, 0.05958324670791626, 0.06056906655430794, 0.061554886400699615, 0.06254070997238159, 0.06352652609348297, 0.06451234221458435, 0.06549816578626633, 0.0664839819073677, 0.06746980547904968, 0.06845562160015106, 0.06944143772125244, 0.07042726129293442, 0.0714130774140358, 0.07239890098571777, 0.07338471710681915, 0.07437053322792053, 0.07535635679960251, 0.07634217292070389, 0.07732799649238586, 0.07831381261348724, 0.07929962873458862, 0.0802854523062706, 0.08127126842737198, 0.08225709199905396, 0.08324290812015533, 0.08422872424125671, 0.08521454781293869, 0.08620036393404007, 0.08718618750572205, 0.08817200362682343, 0.0891578197479248, 0.09014364331960678, 0.09112945944070816, 0.09211528301239014, 0.09310109913349152, 0.0940869152545929, 0.09507273882627487, 0.09605855494737625, 0.09704437851905823, 0.0980301946401596, 0.09901601076126099, 0.10000183433294296, 0.10098765045404434, 0.10197347402572632, 0.1029592901468277, 0.10394510626792908, 0.10493092983961105, 0.10591674596071243, 0.10690256953239441, 0.10788838565349579, 0.10887420922517776, 0.10986002534627914, 0.11084584146738052, 0.1118316650390625, 0.11281748116016388, 0.11380330473184586, 0.11478912085294724]}, "gradients/critic2.fc3.weight": {"_type": "histogram", "values": [246.0, 0.0, 0.0, 0.0, 0.0, 0.0, 1.0, 0.0, 0.0, 0.0, 0.0, 1.0, 0.0, 0.0, 0.0, 0.0, 2.0, 2.0, 8.0, 12.0, 15.0, 17.0, 28.0, 18.0, 17.0, 7.0, 5.0, 3.0, 1.0, 0.0, 0.0, 0.0, 0.0, 0.0, 0.0, 1.0, 1.0, 1.0, 1.0, 2.0, 3.0, 2.0, 5.0, 5.0, 9.0, 7.0, 10.0, 6.0, 9.0, 13.0, 7.0, 9.0, 12.0, 6.0, 5.0, 1.0, 6.0, 3.0, 1.0, 2.0, 0.0, 1.0, 0.0, 1.0], "bins": [0.0, 0.002414858900010586, 0.004829717800021172, 0.007244576700031757, 0.009659435600042343, 0.012074294500052929, 0.014489153400063515, 0.016904011368751526, 0.019318871200084686, 0.021733731031417847, 0.024148589000105858, 0.02656344696879387, 0.02897830680012703, 0.03139316663146019, 0.03380802273750305, 0.03622288256883621, 0.03863774240016937, 0.04105260223150253, 0.04346746206283569, 0.045882318168878555, 0.048297178000211716, 0.050712037831544876, 0.05312689393758774, 0.0555417537689209, 0.05795661360025406, 0.06037147343158722, 0.06278633326292038, 0.06520119309425354, 0.0676160454750061, 0.07003090530633926, 0.07244576513767242, 0.07486062496900558, 0.07727548480033875, 0.0796903446316719, 0.08210520446300507, 0.08452006429433823, 0.08693492412567139, 0.08934977650642395, 0.09176463633775711, 0.09417949616909027, 0.09659435600042343, 0.09900921583175659, 0.10142407566308975, 0.10383893549442291, 0.10625378787517548, 0.10866865515708923, 0.1110835075378418, 0.11349836736917496, 0.11591322720050812, 0.11832808703184128, 0.12074294686317444, 0.123157799243927, 0.12557266652584076, 0.12798751890659332, 0.13040238618850708, 0.13281723856925964, 0.1352320909500122, 0.13764695823192596, 0.14006181061267853, 0.14247667789459229, 0.14489153027534485, 0.1473063975572586, 0.14972124993801117, 0.15213611721992493, 0.1545509696006775]}, "gradients/critic2.fc2.bias": {"_type": "histogram", "values": [1.0, 0.0, 0.0, 0.0, 0.0, 0.0, 0.0, 0.0, 1.0, 0.0, 0.0, 1.0, 0.0, 0.0, 0.0, 0.0, 0.0, 0.0, 0.0, 1.0, 0.0, 0.0, 0.0, 0.0, 0.0, 0.0, 0.0, 0.0, 0.0, 0.0, 0.0, 0.0, 0.0, 0.0, 0.0, 0.0, 0.0, 0.0, 0.0, 0.0, 123.0, 0.0, 0.0, 0.0, 0.0, 0.0, 0.0, 0.0, 0.0, 0.0, 0.0, 0.0, 0.0, 0.0, 0.0, 0.0, 3.0, 16.0, 23.0, 27.0, 33.0, 11.0, 12.0, 4.0], "bins": [-0.015752162784337997, -0.015362892299890518, -0.014973621815443039, -0.01458435133099556, -0.01419508084654808, -0.013805809430778027, -0.013416538946330547, -0.013027268461883068, -0.012637997977435589, -0.01224872749298811, -0.01185945700854063, -0.011470185592770576, -0.011080915108323097, -0.010691644623875618, -0.010302374139428139, -0.00991310365498066, -0.00952383317053318, -0.009134562686085701, -0.008745292201638222, -0.008356021717190742, -0.007966751232743263, -0.007577479816973209, -0.00718820933252573, -0.006798938848078251, -0.006409668363630772, -0.006020397879183292, -0.005631127394735813, -0.005241856910288334, -0.00485258549451828, -0.004463315010070801, -0.0040740445256233215, -0.0036847740411758423, -0.0032955044880509377, -0.0029062340036034584, -0.002516963519155979, -0.0021276930347085, -0.0017384225502610207, -0.0013491511344909668, -0.0009598806500434875, -0.0005706101655960083, -0.00018133968114852905, 0.0002079308032989502, 0.0005972012877464294, 0.0009864717721939087, 0.0013757427223026752, 0.0017650132067501545, 0.002154284156858921, 0.0025435546413064003, 0.0029328251257538795, 0.003322095610201359, 0.003711366094648838, 0.004100637044757605, 0.004489907529205084, 0.004879178013652563, 0.00526844896376133, 0.005657719448208809, 0.006046989932656288, 0.006436260417103767, 0.006825530901551247, 0.007214801851660013, 0.0076040723361074924, 0.007993343286216259, 0.008382613770663738, 0.008771884255111217, 0.009161154739558697]}, "gradients/critic2.fc2.weight": {"_type": "histogram", "values": [1.0, 1.0, 1.0, 1.0, 4.0, 3.0, 1.0, 3.0, 13.0, 4.0, 8.0, 7.0, 3.0, 11.0, 16.0, 11.0, 13.0, 17.0, 12.0, 15.0, 10.0, 20.0, 11.0, 19.0, 29.0, 16.0, 18.0, 21.0, 24.0, 17.0, 26.0, 24.0, 14.0, 21.0, 22.0, 29.0, 17.0, 44.0, 31.0, 21.0, 25.0, 44791.0, 2396.0, 1885.0, 1536.0, 1134.0, 1039.0, 880.0, 878.0, 938.0, 1062.0, 999.0, 891.0, 832.0, 978.0, 1093.0, 1178.0, 1001.0, 661.0, 431.0, 201.0, 92.0, 30.0, 6.0], "bins": [-0.009268993511795998, -0.009044287726283073, -0.00881958194077015, -0.008594876155257225, -0.0083701703697443, -0.008145464584231377, -0.007920758798718452, -0.007696053013205528, -0.007471347227692604, -0.00724664144217968, -0.007021935656666756, -0.0067972298711538315, -0.00657252361997962, -0.006347817834466696, -0.006123112048953772, -0.005898406263440847, -0.005673700477927923, -0.005448994692414999, -0.005224288906902075, -0.004999583121389151, -0.004774877335876226, -0.004550171550363302, -0.004325465764850378, -0.004100759979337454, -0.0038760537281632423, -0.003651347942650318, -0.003426642157137394, -0.0032019363716244698, -0.0029772305861115456, -0.0027525248005986214, -0.002527819015085697, -0.002303113229572773, -0.002078407909721136, -0.001853702124208212, -0.0016289963386952877, -0.0014042905531823635, -0.0011795847676694393, -0.0009548789821565151, -0.0007301731966435909, -0.0005054674111306667, -0.00028076162561774254, -5.6055374443531036e-05, 0.00016865041106939316, 0.00039335619658231735, 0.0006180619820952415, 0.0008427677676081657, 0.00106747355312109, 0.0012921793386340141, 0.0015168851241469383, 0.0017415909096598625, 0.0019662966951727867, 0.002191002480685711, 0.002415708266198635, 0.002640414284542203, 0.002865120070055127, 0.0030898258555680513, 0.0033145316410809755, 0.0035392374265938997, 0.003763943212106824, 0.003988649230450392, 0.004213355015963316, 0.00443806080147624, 0.004662766586989164, 0.0048874723725020885, 0.005112178158015013]}, "gradients/critic2.fc1.bias": {"_type": "histogram", "values": [1.0, 0.0, 1.0, 0.0, 0.0, 2.0, 1.0, 0.0, 3.0, 0.0, 1.0, 1.0, 0.0, 0.0, 0.0, 0.0, 0.0, 0.0, 0.0, 1.0, 1.0, 0.0, 0.0, 2.0, 3.0, 0.0, 2.0, 1.0, 3.0, 1.0, 0.0, 1.0, 0.0, 0.0, 0.0, 0.0, 0.0, 0.0, 98.0, 0.0, 0.0, 0.0, 0.0, 1.0, 3.0, 1.0, 0.0, 6.0, 13.0, 29.0, 34.0, 25.0, 15.0, 3.0, 0.0, 0.0, 0.0, 2.0, 0.0, 0.0, 0.0, 0.0, 0.0, 1.0], "bins": [-0.10511023551225662, -0.10239811986684799, -0.09968600422143936, -0.09697389602661133, -0.0942617803812027, -0.09154966473579407, -0.08883754909038544, -0.0861254334449768, -0.08341331779956818, -0.08070120960474014, -0.07798909395933151, -0.07527697831392288, -0.07256486266851425, -0.06985275447368622, -0.06714063882827759, -0.06442852318286896, -0.06171640753746033, -0.0590042918920517, -0.056292179971933365, -0.053580064326524734, -0.0508679524064064, -0.04815583676099777, -0.04544372111558914, -0.04273160919547081, -0.04001948982477188, -0.03730738162994385, -0.03459526598453522, -0.03188315033912659, -0.029171034693717957, -0.026458919048309326, -0.023746810853481293, -0.021034695208072662, -0.018322579562664032, -0.015610463917255402, -0.012898348271846771, -0.010186240077018738, -0.007474124431610107, -0.004762008786201477, -0.0020498931407928467, 0.0006622225046157837, 0.003374330699443817, 0.006086450070142746, 0.008798561990261078, 0.011510677635669708, 0.014222793281078339, 0.01693490520119667, 0.0196470208466053, 0.022359132766723633, 0.025071248412132263, 0.027783364057540894, 0.030495475977659225, 0.033207591623067856, 0.03591970354318619, 0.03863181918859482, 0.04134393483400345, 0.04405605047941208, 0.04676816239953041, 0.04948027431964874, 0.05219238996505737, 0.054904505610466, 0.057616621255874634, 0.060328733175992966, 0.0630408450961113, 0.06575296074151993, 0.06846507638692856]}, "gradients/critic2.fc1.weight": {"_type": "histogram", "values": [1.0, 0.0, 0.0, 0.0, 3.0, 2.0, 2.0, 0.0, 1.0, 0.0, 0.0, 0.0, 1.0, 0.0, 0.0, 0.0, 0.0, 0.0, 0.0, 0.0, 0.0, 0.0, 0.0, 0.0, 0.0, 0.0, 0.0, 0.0, 0.0, 0.0, 1.0, 0.0, 0.0, 1.0, 1.0, 0.0, 0.0, 11.0, 67.0, 62.0, 11.0, 9.0, 662.0, 5.0, 19.0, 8.0, 25.0, 52.0, 47.0, 15.0, 3.0, 2.0, 0.0, 0.0, 0.0, 0.0, 1.0, 1.0, 2.0, 0.0, 3.0, 4.0, 1.0, 1.0], "bins": [-0.1489756852388382, -0.1454654037952423, -0.14195510745048523, -0.13844482600688934, -0.13493452966213226, -0.13142424821853638, -0.1279139518737793, -0.12440367043018341, -0.12089338153600693, -0.11738309264183044, -0.11387280374765396, -0.11036251485347748, -0.10685223340988159, -0.10334193706512451, -0.09983165562152863, -0.09632136672735214, -0.09281107783317566, -0.08930078893899918, -0.08579050004482269, -0.08228021115064621, -0.07876992225646973, -0.07525964081287384, -0.07174935191869736, -0.06823906302452087, -0.06472877413034439, -0.06121848523616791, -0.057708196341991425, -0.05419790744781494, -0.050687626004219055, -0.04717733711004257, -0.04366704821586609, -0.040156759321689606, -0.03664647042751312, -0.03313618153333664, -0.029625892639160156, -0.026115603744983673, -0.02260531485080719, -0.019095033407211304, -0.01558474451303482, -0.012074455618858337, -0.008564166724681854, -0.005053877830505371, -0.001543588936328888, 0.001966699957847595, 0.0054769814014434814, 0.008987270295619965, 0.012497559189796448, 0.01600784808397293, 0.019518136978149414, 0.023028425872325897, 0.02653871476650238, 0.030048999935388565, 0.03355928882956505, 0.03706957772374153, 0.040579862892627716, 0.0440901517868042, 0.04760044068098068, 0.051110729575157166, 0.05462101846933365, 0.05813130363821983, 0.061641592532396317, 0.0651518777012825, 0.06866216659545898, 0.07217245548963547, 0.07568274438381195]}, "gradients/actor_local.fc3.bias": {"_type": "histogram", "values": [1.0, 0.0, 0.0, 0.0, 0.0, 0.0, 0.0, 0.0, 0.0, 0.0, 0.0, 0.0, 0.0, 0.0, 0.0, 0.0, 0.0, 0.0, 0.0, 0.0, 0.0, 0.0, 0.0, 0.0, 0.0, 0.0, 0.0, 0.0, 0.0, 0.0, 0.0, 0.0, 0.0, 0.0, 0.0, 0.0, 0.0, 0.0, 0.0, 0.0, 0.0, 0.0, 0.0, 0.0, 0.0, 0.0, 0.0, 0.0, 0.0, 0.0, 0.0, 0.0, 0.0, 0.0, 0.0, 0.0, 0.0, 0.0, 0.0, 0.0, 0.0, 0.0, 0.0, 1.0], "bins": [-0.0033756052143871784, -0.003270117798820138, -0.0031646303832530975, -0.0030591432005167007, -0.0029536557849496603, -0.00284816836938262, -0.0027426809538155794, -0.002637193538248539, -0.002531706355512142, -0.0024262189399451017, -0.0023207315243780613, -0.002215244108811021, -0.0021097566932439804, -0.0020042695105075836, -0.0018987819785252213, -0.0017932946793735027, -0.0016878072638064623, -0.0015823198482394218, -0.0014768325490877032, -0.0013713452499359846, -0.0012658578343689442, -0.0011603704188019037, -0.0010548830032348633, -0.0009493955876678228, -0.0008439081721007824, -0.0007384209893643856, -0.0006329335737973452, -0.0005274461582303047, -0.0004219587426632643, -0.00031647132709622383, -0.00021098414435982704, -0.0001054967287927866, -9.313225746154785e-09, 0.00010547810234129429, 0.00021096551790833473, 0.0003164527006447315, 0.00042194011621177197, 0.0005274275317788124, 0.0006329149473458529, 0.0007384023629128933, 0.0008438895456492901, 0.0009493769612163305, 0.001054864376783371, 0.0011603517923504114, 0.0012658392079174519, 0.0013713266234844923, 0.001476813922636211, 0.0015823012217879295, 0.00168778863735497, 0.0017932760529220104, 0.001898763352073729, 0.0020042508840560913, 0.002109738066792488, 0.0022152254823595285, 0.002320712897926569, 0.0024262003134936094, 0.00253168772906065, 0.0026371749117970467, 0.002742662327364087, 0.0028481497429311275, 0.002953637158498168, 0.0030591245740652084, 0.0031646117568016052, 0.0032700991723686457, 0.003375586587935686]}, "gradients/actor_local.fc3.weight": {"_type": "histogram", "values": [1.0, 0.0, 0.0, 0.0, 0.0, 1.0, 1.0, 0.0, 1.0, 0.0, 0.0, 0.0, 0.0, 0.0, 0.0, 0.0, 0.0, 0.0, 0.0, 0.0, 0.0, 0.0, 1.0, 0.0, 0.0, 0.0, 0.0, 0.0, 0.0, 0.0, 0.0, 18.0, 484.0, 0.0, 0.0, 0.0, 0.0, 0.0, 0.0, 0.0, 0.0, 1.0, 0.0, 0.0, 0.0, 0.0, 0.0, 0.0, 0.0, 0.0, 0.0, 0.0, 0.0, 0.0, 0.0, 1.0, 0.0, 1.0, 1.0, 0.0, 0.0, 0.0, 0.0, 1.0], "bins": [-0.003256098832935095, -0.0031543460208922625, -0.00305259320884943, -0.002950840163975954, -0.0028490873519331217, -0.0027473345398902893, -0.002645581727847457, -0.0025438289158046246, -0.002442076103761792, -0.00234032329171896, -0.0022385702468454838, -0.002136817667633295, -0.002035064622759819, -0.0019333118107169867, -0.0018315589986741543, -0.001729806070216, -0.0016280532581731677, -0.0015263004461303353, -0.0014245475176721811, -0.0013227947056293488, -0.0012210418935865164, -0.001119289081543684, -0.0010175362695008516, -0.0009157832246273756, -0.0008140304125845432, -0.0007122776005417109, -0.0006105247884988785, -0.0005087719764560461, -0.00040701916441321373, -0.0003052661195397377, -0.00020351330749690533, -0.00010176049545407295, -7.683411240577698e-09, 0.0001017451286315918, 0.00020349794067442417, 0.00030525075271725655, 0.0004070037975907326, 0.000508756609633565, 0.0006105094216763973, 0.0007122622337192297, 0.0008140150457620621, 0.0009157678578048944, 0.0010175209026783705, 0.0011192737147212029, 0.0012210265267640352, 0.0013227793388068676, 0.0014245321508497, 0.0015262850793078542, 0.0016280378913506866, 0.001729790703393519, 0.0018315436318516731, 0.0019332964438945055, 0.002035049255937338, 0.002136802300810814, 0.0022385548800230026, 0.0023403079248964787, 0.002442060736939311, 0.0025438135489821434, 0.0026455663610249758, 0.002747319173067808, 0.0028490719851106405, 0.002950824797153473, 0.003052577842026949, 0.0031543306540697813, 0.0032560834661126137]}, "gradients/actor_local.fc2.bias": {"_type": "histogram", "values": [1.0, 0.0, 0.0, 0.0, 0.0, 0.0, 0.0, 0.0, 0.0, 0.0, 0.0, 0.0, 0.0, 0.0, 0.0, 0.0, 0.0, 0.0, 0.0, 0.0, 0.0, 0.0, 0.0, 0.0, 0.0, 0.0, 0.0, 0.0, 0.0, 1.0, 0.0, 1.0, 0.0, 0.0, 0.0, 0.0, 0.0, 0.0, 0.0, 0.0, 0.0, 0.0, 0.0, 0.0, 0.0, 0.0, 0.0, 0.0, 0.0, 1.0, 1.0, 0.0, 0.0, 1.0, 0.0, 0.0, 0.0, 0.0, 0.0, 1.0, 1.0, 0.0, 247.0, 1.0], "bins": [-0.0003026564954780042, -0.0002978059055749327, -0.00029295531567186117, -0.00028810472576878965, -0.0002832541649695486, -0.00027840357506647706, -0.00027355298516340554, -0.000268702395260334, -0.0002638518053572625, -0.00025900121545419097, -0.00025415062555111945, -0.0002493000356480479, -0.00024444947484880686, -0.00023959888494573534, -0.0002347482950426638, -0.0002298977051395923, -0.00022504711523652077, -0.00022019653988536447, -0.00021534594998229295, -0.00021049537463113666, -0.00020564478472806513, -0.0002007941948249936, -0.0001959436049219221, -0.00019109301501885056, -0.00018624243966769427, -0.00018139184976462275, -0.00017654125986155123, -0.00017169068451039493, -0.0001668400946073234, -0.00016198950470425189, -0.00015713891480118036, -0.00015228833945002407, -0.00014743774954695255, -0.00014258715964388102, -0.00013773658429272473, -0.0001328859943896532, -0.00012803540448658168, -0.00012318481458351016, -0.00011833423923235387, -0.00011348364932928234, -0.00010863305942621082, -0.00010378247679909691, -9.8931894171983e-05, -9.408130426891148e-05, -8.923072164179757e-05, -8.438013173872605e-05, -7.952954911161214e-05, -7.467895920854062e-05, -6.982837658142671e-05, -6.49777939543128e-05, -6.012720405124128e-05, -5.527662142412737e-05, -5.042603152105585e-05, -4.557544889394194e-05, -4.072486262884922e-05, -3.587427636375651e-05, -3.102369009866379e-05, -2.6173103833571076e-05, -2.132251756847836e-05, -1.6471931303385645e-05, -1.1621345947787631e-05, -6.770759682694916e-06, -1.920174327096902e-06, 2.930411483248463e-06, 7.780997293593828e-06]}, "gradients/actor_local.fc2.weight": {"_type": "histogram", "values": [1.0, 0.0, 0.0, 0.0, 0.0, 0.0, 0.0, 1.0, 1.0, 0.0, 3.0, 2.0, 0.0, 6.0, 3.0, 1.0, 3.0, 1.0, 2.0, 5.0, 6.0, 6.0, 5.0, 6.0, 3.0, 10.0, 13.0, 12.0, 12.0, 16.0, 19.0, 15.0, 12.0, 20.0, 24.0, 19.0, 21.0, 22.0, 26.0, 33.0, 20.0, 29.0, 47.0, 39.0, 44.0, 51.0, 53.0, 49.0, 65.0, 133.0, 64408.0, 161.0, 23.0, 18.0, 16.0, 15.0, 12.0, 7.0, 8.0, 2.0, 3.0, 1.0, 2.0, 1.0], "bins": [-0.0002706973173189908, -0.0002653748379088938, -0.0002600523584987968, -0.0002547298790886998, -0.00024940742878243327, -0.00024408493482042104, -0.00023876246996223927, -0.00023343999055214226, -0.00022811751114204526, -0.00022279503173194826, -0.00021747255232185125, -0.00021215008746366948, -0.00020682760805357248, -0.00020150512864347547, -0.0001961826637852937, -0.0001908601843751967, -0.0001855377049650997, -0.0001802152255550027, -0.00017489274614490569, -0.0001695702812867239, -0.0001642478018766269, -0.0001589253224665299, -0.00015360285760834813, -0.00014828037819825113, -0.00014295789878815413, -0.00013763541937805712, -0.00013231293996796012, -0.00012699047510977834, -0.00012166799569968134, -0.00011634551628958434, -0.00011102305143140256, -0.00010570057202130556, -0.00010037808533525094, -9.505560592515394e-05, -8.973312651505694e-05, -8.441066165687516e-05, -7.908818224677816e-05, -7.376570283668116e-05, -6.844323797849938e-05, -6.312075856840238e-05, -5.779827915830538e-05, -5.2475799748208374e-05, -4.7153327614068985e-05, -4.1830855479929596e-05, -3.650837606983259e-05, -3.118589665973559e-05, -2.58634245255962e-05, -2.0540952391456813e-05, -1.521847298135981e-05, -9.895993571262807e-06, -4.573521437123418e-06, 7.489506970159709e-07, 6.071430107112974e-06, 1.139390587923117e-05, 1.6716381651349366e-05, 2.203885742346756e-05, 2.7361333195585757e-05, 3.268380896770395e-05, 3.800628473982215e-05, 4.3328760511940345e-05, 4.865123628405854e-05, 5.397371205617674e-05, 5.929618782829493e-05, 6.461866723839194e-05, 6.994113937253132e-05]}, "gradients/actor_local.fc1.bias": {"_type": "histogram", "values": [1.0, 0.0, 1.0, 0.0, 0.0, 1.0, 3.0, 0.0, 0.0, 0.0, 0.0, 0.0, 3.0, 3.0, 2.0, 6.0, 5.0, 5.0, 4.0, 3.0, 6.0, 5.0, 5.0, 3.0, 5.0, 3.0, 4.0, 5.0, 6.0, 17.0, 3.0, 7.0, 5.0, 3.0, 9.0, 5.0, 11.0, 43.0, 11.0, 9.0, 9.0, 6.0, 2.0, 4.0, 8.0, 1.0, 3.0, 2.0, 1.0, 0.0, 3.0, 5.0, 2.0, 0.0, 1.0, 2.0, 1.0, 2.0, 0.0, 1.0, 0.0, 0.0, 0.0, 1.0], "bins": [-4.010186967207119e-05, -3.903362085111439e-05, -3.796536839217879e-05, -3.689711957122199e-05, -3.582886711228639e-05, -3.476061829132959e-05, -3.3692369470372796e-05, -3.262411701143719e-05, -3.1555868190480396e-05, -3.0487617550534196e-05, -2.9419366910587996e-05, -2.83511180896312e-05, -2.7282867449685e-05, -2.62146168097388e-05, -2.5146367988782004e-05, -2.4078117348835804e-05, -2.3009866708889604e-05, -2.1941616068943404e-05, -2.0873365428997204e-05, -1.9805116608040407e-05, -1.8736865968094207e-05, -1.7668615328148007e-05, -1.660036650719121e-05, -1.553211586724501e-05, -1.4463865227298811e-05, -1.3395614587352611e-05, -1.2327363947406411e-05, -1.1259115126449615e-05, -1.0190864486503415e-05, -9.122613846557215e-06, -8.054365025600418e-06, -6.986112566664815e-06, -5.917861926718615e-06, -4.849613105761819e-06, -3.781360646826215e-06, -2.7131118258694187e-06, -1.6448611859232187e-06, -5.766105459770188e-07, 4.916382749797776e-07, 1.5598889149259776e-06, 2.6281395548721775e-06, 3.6963901948183775e-06, 4.7646408347645774e-06, 5.832889655721374e-06, 6.901140295667574e-06, 7.969390935613774e-06, 9.03763975657057e-06, 1.010589039651677e-05, 1.117414103646297e-05, 1.224239167640917e-05, 1.3310641406860668e-05, 1.4378891137312166e-05, 1.5447141777258366e-05, 1.6515392417204566e-05, 1.7583643057150766e-05, 1.8651891878107563e-05, 1.9720142518053763e-05, 2.0788393157999963e-05, 2.185664197895676e-05, 2.292489261890296e-05, 2.399314325884916e-05, 2.506139389879536e-05, 2.612964453874156e-05, 2.7197893359698355e-05, 2.8266143999644555e-05]}, "gradients/actor_local.fc1.weight": {"_type": "histogram", "values": [1.0, 1.0, 0.0, 1.0, 1.0, 3.0, 1.0, 0.0, 1.0, 2.0, 2.0, 1.0, 2.0, 3.0, 3.0, 2.0, 4.0, 6.0, 3.0, 2.0, 1.0, 5.0, 1.0, 1.0, 2.0, 9.0, 5.0, 12.0, 10.0, 4.0, 11.0, 14.0, 16.0, 26.0, 43.0, 59.0, 91.0, 335.0, 112.0, 49.0, 30.0, 22.0, 25.0, 11.0, 10.0, 12.0, 11.0, 7.0, 14.0, 7.0, 8.0, 4.0, 5.0, 1.0, 3.0, 3.0, 1.0, 1.0, 1.0, 0.0, 0.0, 2.0, 0.0, 1.0], "bins": [-5.0738774007186294e-05, -4.9382284487364814e-05, -4.8025794967543334e-05, -4.6669305447721854e-05, -4.5312815927900374e-05, -4.3956326408078894e-05, -4.2599836888257414e-05, -4.1243347368435934e-05, -3.9886857848614454e-05, -3.8530368328792974e-05, -3.7173878808971494e-05, -3.5817389289150015e-05, -3.4460899769328535e-05, -3.3104410249507055e-05, -3.1747920729685575e-05, -3.0391431209864095e-05, -2.9034941690042615e-05, -2.7678452170221135e-05, -2.6321962650399655e-05, -2.4965473130578175e-05, -2.3608983610756695e-05, -2.2252494090935215e-05, -2.0896004571113735e-05, -1.9539515051292256e-05, -1.8183025531470776e-05, -1.6826536011649296e-05, -1.5470046491827816e-05, -1.4113556972006336e-05, -1.2757067452184856e-05, -1.1400577932363376e-05, -1.0044088412541896e-05, -8.687598892720416e-06, -7.331109372898936e-06, -5.974619853077456e-06, -4.6181303332559764e-06, -3.2616408134344965e-06, -1.9051512936130166e-06, -5.486617737915367e-07, 8.078277460299432e-07, 2.164317265851423e-06, 3.520806785672903e-06, 4.877296305494383e-06, 6.233785825315863e-06, 7.590275345137343e-06, 8.946764864958823e-06, 1.0303254384780303e-05, 1.1659743904601783e-05, 1.3016233424423262e-05, 1.4372722944244742e-05, 1.5729212464066222e-05, 1.7085701983887702e-05, 1.8442191503709182e-05, 1.9798681023530662e-05, 2.1155170543352142e-05, 2.2511660063173622e-05, 2.3868149582995102e-05, 2.5224639102816582e-05, 2.658112862263806e-05, 2.793761814245954e-05, 2.929410766228102e-05, 3.06505971821025e-05, 3.200708670192398e-05, 3.336357622174546e-05, 3.472006574156694e-05, 3.607655526138842e-05]}, "Reward": 14.0, "Average10": 17.5, "Steps": 486, "Policy Loss": -7.1970367431640625, "Alpha Loss": 2.138383150100708, "Bellmann error 1": 0.36296796798706055, "Bellmann error 2": 0.358549028635025, "Alpha": 0.7942855954170227, "Episode": 25, "Buffer size": 10486, "_runtime": 6.013974189758301, "_step": 25, "_wandb": {"runtime": 4}}