{"gradients/critic1.fc3.bias": {"_type": "histogram", "values": [1.0, 0.0, 0.0, 0.0, 0.0, 0.0, 0.0, 0.0, 0.0, 0.0, 0.0, 0.0, 0.0, 0.0, 0.0, 0.0, 0.0, 0.0, 0.0, 0.0, 0.0, 0.0, 0.0, 0.0, 0.0, 0.0, 0.0, 0.0, 0.0, 0.0, 0.0, 0.0, 0.0, 0.0, 0.0, 0.0, 0.0, 0.0, 0.0, 0.0, 0.0, 0.0, 0.0, 0.0, 0.0, 0.0, 0.0, 0.0, 0.0, 0.0, 0.0, 0.0, 0.0, 0.0, 0.0, 0.0, 0.0, 0.0, 0.0, 0.0, 0.0, 0.0, 0.0, 1.0], "bins": [-0.004261079244315624, -0.004106477834284306, -0.003951876889914274, -0.003797275712713599, -0.003642674535512924, -0.0034880731254816055, -0.0033334719482809305, -0.0031788707710802555, -0.0030242695938795805, -0.0028696684166789055, -0.0027150672394782305, -0.0025604660622775555, -0.002405864652246237, -0.002251263475045562, -0.0020966622978448868, -0.0019420611206442118, -0.0017874599434435368, -0.0016328587662428617, -0.0014782575890421867, -0.0013236564118415117, -0.0011690552346408367, -0.001014453824609518, -0.000859852647408843, -0.000705251470208168, -0.000550650293007493, -0.000396049115806818, -0.00024144770577549934, -8.684676140546799e-05, 6.775464862585068e-05, 0.00022235559299588203, 0.0003769570030272007, 0.0005315579473972321, 0.0006861593574285507, 0.0008407607674598694, 0.0009953617118299007, 0.0011499631218612194, 0.0013045640662312508, 0.0014591654762625694, 0.0016137664206326008, 0.0017683678306639194, 0.0019229690078645945, 0.0020775701850652695, 0.0022321713622659445, 0.0023867725394666195, 0.002541373949497938, 0.002695975126698613, 0.002850576303899288, 0.003005177481099963, 0.003159778658300638, 0.003314379835501313, 0.0034689810127019882, 0.0036235821899026632, 0.0037781833671033382, 0.003932784777134657, 0.004087385721504688, 0.004241987131536007, 0.004396588541567326, 0.004551189485937357, 0.004705790895968676, 0.004860391840338707, 0.005014993250370026, 0.005169594194740057, 0.005324195604771376, 0.005478796549141407, 0.005633397959172726]}, "_timestamp": 1684521198.372761, "gradients/critic1.fc3.weight": {"_type": "histogram", "values": [1.0, 0.0, 0.0, 3.0, 2.0, 4.0, 6.0, 11.0, 12.0, 15.0, 15.0, 23.0, 8.0, 11.0, 4.0, 9.0, 1.0, 0.0, 1.0, 0.0, 1.0, 0.0, 1.0, 1.0, 0.0, 0.0, 254.0, 0.0, 0.0, 0.0, 1.0, 0.0, 0.0, 0.0, 0.0, 0.0, 1.0, 0.0, 0.0, 1.0, 1.0, 0.0, 2.0, 2.0, 5.0, 0.0, 4.0, 5.0, 4.0, 7.0, 8.0, 11.0, 10.0, 12.0, 12.0, 11.0, 8.0, 6.0, 5.0, 5.0, 3.0, 3.0, 1.0, 1.0], "bins": [-0.004712556954473257, -0.004536900203675032, -0.004361243918538094, -0.004185587167739868, -0.00400993088260293, -0.0038342741318047047, -0.003658617613837123, -0.003482961095869541, -0.0033073045779019594, -0.0031316480599343777, -0.002955991541966796, -0.002780335023999214, -0.0026046782732009888, -0.002429021755233407, -0.0022533652372658253, -0.0020777087192982435, -0.0019020522013306618, -0.00172639568336308, -0.0015507391653954983, -0.0013750826474279165, -0.0011994261294603348, -0.0010237693786621094, -0.0008481128606945276, -0.0006724563427269459, -0.0004967995919287205, -0.0003211433067917824, -0.00014548655599355698, 3.016972914338112e-05, 0.00020582647994160652, 0.0003814827650785446, 0.00055713951587677, 0.0007327958010137081, 0.0009084525518119335, 0.001084109302610159, 0.001259765587747097, 0.0014354223385453224, 0.0016110786236822605, 0.001786735374480486, 0.001962391659617424, 0.0021380484104156494, 0.0023137046955525875, 0.002489361446350813, 0.0026650179643183947, 0.0028406744822859764, 0.003016331233084202, 0.0031919877510517836, 0.0033676442690193653, 0.003543300786986947, 0.003718957304954529, 0.0038946138229221106, 0.004070270340889692, 0.00424592662602663, 0.004421583376824856, 0.004597240127623081, 0.004772896878421307, 0.004948553163558245, 0.005124209448695183, 0.005299866199493408, 0.005475522950291634, 0.005651179235428572, 0.005826835986226797, 0.006002492271363735, 0.006178149022161961, 0.006353805307298899, 0.006529462058097124]}, "gradients/critic1.fc2.bias": {"_type": "histogram", "values": [1.0, 0.0, 0.0, 0.0, 0.0, 0.0, 0.0, 0.0, 0.0, 0.0, 0.0, 127.0, 0.0, 0.0, 2.0, 0.0, 0.0, 0.0, 1.0, 1.0, 2.0, 2.0, 3.0, 0.0, 3.0, 3.0, 2.0, 3.0, 3.0, 3.0, 5.0, 5.0, 3.0, 1.0, 4.0, 3.0, 5.0, 7.0, 5.0, 0.0, 7.0, 2.0, 2.0, 5.0, 4.0, 6.0, 4.0, 4.0, 2.0, 1.0, 3.0, 4.0, 4.0, 2.0, 3.0, 2.0, 1.0, 1.0, 2.0, 0.0, 1.0, 0.0, 0.0, 2.0], "bins": [-1.1527736205607653e-05, -1.0485959137440659e-05, -9.444182978768367e-06, -8.402406820096076e-06, -7.360629751929082e-06, -6.318853138509439e-06, -5.277076525089797e-06, -4.235299911670154e-06, -3.1935232982505113e-06, -2.1517462300835177e-06, -1.109970071411226e-06, -6.819391273893416e-08, 9.735831554280594e-07, 2.015360223595053e-06, 3.0571363822673447e-06, 4.0989125409396365e-06, 5.14068960910663e-06, 6.182466677273624e-06, 7.224243745440617e-06, 8.266018994618207e-06, 9.3077960627852e-06, 1.0349573130952194e-05, 1.1391348380129784e-05, 1.2433125448296778e-05, 1.3474902516463771e-05, 1.4516679584630765e-05, 1.555845665279776e-05, 1.660023190197535e-05, 1.7642008970142342e-05, 1.8683786038309336e-05, 1.9725561287486926e-05, 2.0767340174643323e-05, 2.1809115423820913e-05, 2.2850890672998503e-05, 2.38926695601549e-05, 2.493444480933249e-05, 2.5976221877499484e-05, 2.7017998945666477e-05, 2.8059774194844067e-05, 2.910155126301106e-05, 3.0143328331178054e-05, 3.1185103580355644e-05, 3.222688246751204e-05, 3.326865771668963e-05, 3.431043296586722e-05, 3.535221185302362e-05, 3.639398710220121e-05, 3.74357623513788e-05, 3.8477541238535196e-05, 3.951932012569159e-05, 4.056109537486918e-05, 4.160287062404677e-05, 4.264464951120317e-05, 4.368642476038076e-05, 4.472820000955835e-05, 4.576997889671475e-05, 4.681175414589234e-05, 4.785352939506993e-05, 4.8895308282226324e-05, 4.9937083531403914e-05, 5.0978858780581504e-05, 5.20206376677379e-05, 5.306241291691549e-05, 5.410419180407189e-05, 5.514596705324948e-05]}, "gradients/critic1.fc2.weight": {"_type": "histogram", "values": [3.0, 0.0, 2.0, 2.0, 3.0, 1.0, 0.0, 1.0, 1.0, 1.0, 1.0, 3.0, 5.0, 43.0, 123.0, 252.0, 646.0, 47516.0, 1142.0, 1355.0, 1871.0, 1770.0, 1725.0, 1547.0, 1338.0, 1254.0, 1043.0, 737.0, 420.0, 309.0, 265.0, 190.0, 115.0, 97.0, 66.0, 95.0, 57.0, 59.0, 56.0, 64.0, 32.0, 33.0, 36.0, 32.0, 42.0, 59.0, 101.0, 131.0, 128.0, 112.0, 101.0, 99.0, 78.0, 39.0, 41.0, 42.0, 34.0, 58.0, 65.0, 32.0, 32.0, 18.0, 10.0, 3.0], "bins": [-2.903785207308829e-05, -2.7343239707988687e-05, -2.5648627342889085e-05, -2.3954014977789484e-05, -2.2259402612689883e-05, -2.0564792066579685e-05, -1.887017788249068e-05, -1.7175567336380482e-05, -1.5480953152291477e-05, -1.3786341696686577e-05, -1.2091730241081677e-05, -1.0397117875982076e-05, -8.702505510882474e-06, -7.007893145782873e-06, -5.313280780683272e-06, -3.61866841558367e-06, -1.9240560504840687e-06, -2.2944368538446724e-07, 1.4651686797151342e-06, 3.1597810448147357e-06, 4.8543915909249336e-06, 6.5490057750139385e-06, 8.243616321124136e-06, 9.938230505213141e-06, 1.163284105132334e-05, 1.3327455235412344e-05, 1.5022065781522542e-05, 1.6716679965611547e-05, 1.8411290511721745e-05, 2.010590469581075e-05, 2.1800515241920948e-05, 2.3495129426009953e-05, 2.518973997212015e-05, 2.688435051823035e-05, 2.8578964702319354e-05, 3.0273575248429552e-05, 3.196818943251856e-05, 3.3662799978628755e-05, 3.535741416271776e-05, 3.705202470882796e-05, 3.874663889291696e-05, 4.044124943902716e-05, 4.2135863623116165e-05, 4.383047416922636e-05, 4.552508835331537e-05, 4.7219698899425566e-05, 4.891431308351457e-05, 5.060892362962477e-05, 5.230353417573497e-05, 5.399814835982397e-05, 5.569276254391298e-05, 5.7387373090023175e-05, 5.908198363613337e-05, 6.077659782022238e-05, 6.247121200431138e-05, 6.416581891244277e-05, 6.586043309653178e-05, 6.755504728062078e-05, 6.924966146470979e-05, 7.094426837284118e-05, 7.263888255693018e-05, 7.433349674101919e-05, 7.60281109251082e-05, 7.772271783323959e-05, 7.941733201732859e-05]}, "gradients/critic1.fc1.bias": {"_type": "histogram", "values": [1.0, 0.0, 0.0, 0.0, 0.0, 0.0, 0.0, 0.0, 0.0, 0.0, 0.0, 0.0, 0.0, 0.0, 0.0, 0.0, 0.0, 2.0, 0.0, 1.0, 0.0, 0.0, 0.0, 2.0, 1.0, 1.0, 0.0, 1.0, 0.0, 1.0, 1.0, 0.0, 1.0, 2.0, 0.0, 1.0, 0.0, 2.0, 0.0, 0.0, 0.0, 3.0, 2.0, 0.0, 2.0, 5.0, 2.0, 0.0, 111.0, 14.0, 92.0, 2.0, 1.0, 0.0, 0.0, 1.0, 0.0, 1.0, 0.0, 1.0, 1.0, 0.0, 0.0, 1.0], "bins": [-0.0019317511469125748, -0.0018917890265583992, -0.0018518269062042236, -0.00181186490226537, -0.0017719027819111943, -0.0017319406615570188, -0.0016919785412028432, -0.0016520164208486676, -0.0016120544169098139, -0.0015720922965556383, -0.0015321301762014627, -0.0014921680558472872, -0.0014522059354931116, -0.001412243815138936, -0.0013722816947847605, -0.0013323196908459067, -0.0012923575704917312, -0.0012523954501375556, -0.0012124334461987019, -0.0011724713258445263, -0.0011325092054903507, -0.0010925470851361752, -0.0010525849647819996, -0.001012622844427824, -0.0009726607822813094, -0.0009326987201347947, -0.0008927365997806191, -0.0008527744794264436, -0.000812812359072268, -0.0007728502387180924, -0.0007328882347792387, -0.0006929261144250631, -0.0006529638776555657, -0.0006130017573013902, -0.0005730396369472146, -0.0005330776330083609, -0.0004931155126541853, -0.00045315339230000973, -0.00041319127194583416, -0.0003732291515916586, -0.00033326708944514394, -0.00029330496909096837, -0.0002533429069444537, -0.00021338078659027815, -0.00017341866623610258, -0.00013345660408958793, -9.349448373541236e-05, -5.3532421588897705e-05, -1.3570301234722137e-05, 2.639181911945343e-05, 6.635388126596808e-05, 0.00010631600162014365, 0.00014627809287048876, 0.00018624018412083387, 0.00022620230447500944, 0.00026616439572535455, 0.00030612648697569966, 0.0003460885782260448, 0.0003860506694763899, 0.00042601278983056545, 0.00046597488108091056, 0.0005059369723312557, 0.0005458990926854312, 0.0005858611548319459, 0.0006258232751861215]}, "gradients/critic1.fc1.weight": {"_type": "histogram", "values": [1.0, 0.0, 0.0, 0.0, 0.0, 0.0, 0.0, 0.0, 0.0, 1.0, 0.0, 0.0, 0.0, 0.0, 0.0, 2.0, 0.0, 0.0, 1.0, 4.0, 2.0, 3.0, 2.0, 1.0, 0.0, 0.0, 3.0, 2.0, 1.0, 5.0, 5.0, 3.0, 6.0, 12.0, 112.0, 564.0, 36.0, 142.0, 75.0, 9.0, 4.0, 2.0, 1.0, 2.0, 3.0, 2.0, 3.0, 2.0, 2.0, 2.0, 1.0, 0.0, 1.0, 1.0, 0.0, 1.0, 1.0, 0.0, 0.0, 0.0, 2.0, 0.0, 1.0, 1.0], "bins": [-0.0028945780359208584, -0.0028139299247413874, -0.00273328204639256, -0.002652633935213089, -0.0025719860568642616, -0.0024913379456847906, -0.0024106898345053196, -0.0023300419561564922, -0.0022493938449770212, -0.00216874573379755, -0.002088097855448723, -0.002007449744269252, -0.0019268017495051026, -0.0018461537547409534, -0.0017655056435614824, -0.0016848576487973332, -0.001604209654033184, -0.0015235616592690349, -0.0014429136645048857, -0.0013622655533254147, -0.0012816175585612655, -0.0012009695637971163, -0.0011203214526176453, -0.001039673457853496, -0.0009590254630893469, -0.0008783773519098759, -0.0007977294735610485, -0.0007170813623815775, -0.0006364332512021065, -0.0005557853728532791, -0.0004751372616738081, -0.00039448938332498074, -0.0003138415049761534, -0.00023319339379668236, -0.000152545515447855, -7.189740426838398e-05, 8.750474080443382e-06, 8.93985852599144e-05, 0.00017004669643938541, 0.0002506945747882128, 0.0003313426859676838, 0.000411990680731833, 0.0004926386754959822, 0.0005732867866754532, 0.0006539347814396024, 0.0007345827762037516, 0.0008152308873832226, 0.0008958788821473718, 0.000976526876911521, 0.0010571748716756701, 0.0011378228664398193, 0.0012184709776192904, 0.0012991189723834395, 0.0013797669671475887, 0.0014604150783270597, 0.001541063073091209, 0.0016217110678553581, 0.0017023590626195073, 0.0017830070573836565, 0.0018636551685631275, 0.0019443031633272767, 0.002024951158091426, 0.002105599269270897, 0.0021862471476197243, 0.0022668952587991953]}, "gradients/critic2.fc3.bias": {"_type": "histogram", "values": [1.0, 0.0, 0.0, 0.0, 0.0, 0.0, 0.0, 0.0, 0.0, 0.0, 0.0, 0.0, 0.0, 0.0, 0.0, 0.0, 0.0, 0.0, 0.0, 0.0, 0.0, 0.0, 0.0, 0.0, 0.0, 0.0, 0.0, 0.0, 0.0, 0.0, 0.0, 0.0, 0.0, 0.0, 0.0, 0.0, 0.0, 0.0, 0.0, 0.0, 0.0, 0.0, 0.0, 0.0, 0.0, 0.0, 0.0, 0.0, 0.0, 0.0, 0.0, 0.0, 0.0, 0.0, 0.0, 0.0, 0.0, 0.0, 0.0, 0.0, 0.0, 0.0, 0.0, 1.0], "bins": [-0.01156014483422041, -0.011408000253140926, -0.011255856603384018, -0.011103712022304535, -0.010951567441225052, -0.010799422860145569, -0.01064727921038866, -0.010495134629309177, -0.010342990048229694, -0.010190846398472786, -0.010038701817393303, -0.00988655723631382, -0.009734412655234337, -0.009582269005477428, -0.009430124424397945, -0.009277979843318462, -0.009125836193561554, -0.008973691612482071, -0.008821547031402588, -0.008669402450323105, -0.008517257869243622, -0.008365114219486713, -0.00821296963840723, -0.008060825988650322, -0.007908681407570839, -0.007756536826491356, -0.00760439271107316, -0.007452248129993677, -0.007300104014575481, -0.007147959433495998, -0.006995815318077803, -0.00684367073699832, -0.006691526621580124, -0.006539382506161928, -0.006387237925082445, -0.006235093809664249, -0.006082949228584766, -0.005930805113166571, -0.005778660532087088, -0.005626516416668892, -0.005474371835589409, -0.005322227720171213, -0.005170083604753017, -0.005017939023673534, -0.004865794908255339, -0.004713650792837143, -0.00456150621175766, -0.004409361630678177, -0.004257217515259981, -0.004105073399841785, -0.003952928818762302, -0.003800784470513463, -0.0036486401222646236, -0.003496496006846428, -0.0033443516585975885, -0.003192207310348749, -0.0030400629620999098, -0.0028879186138510704, -0.002735774265602231, -0.0025836299173533916, -0.002431485801935196, -0.0022793414536863565, -0.002127197105437517, -0.001975052757188678, -0.0018229084089398384]}, "gradients/critic2.fc3.weight": {"_type": "histogram", "values": [2.0, 0.0, 0.0, 0.0, 0.0, 1.0, 3.0, 3.0, 3.0, 3.0, 2.0, 4.0, 4.0, 6.0, 11.0, 5.0, 7.0, 10.0, 7.0, 8.0, 2.0, 8.0, 4.0, 9.0, 4.0, 6.0, 2.0, 3.0, 1.0, 3.0, 0.0, 5.0, 1.0, 0.0, 1.0, 1.0, 0.0, 0.0, 0.0, 0.0, 0.0, 0.0, 0.0, 0.0, 0.0, 1.0, 0.0, 0.0, 0.0, 0.0, 0.0, 0.0, 0.0, 1.0, 4.0, 9.0, 33.0, 45.0, 26.0, 8.0, 4.0, 0.0, 0.0, 252.0], "bins": [-0.012240612879395485, -0.012049353681504726, -0.011858093552291393, -0.011666834354400635, -0.011475574225187302, -0.011284315027296543, -0.011093055829405785, -0.010901795700192451, -0.010710536502301693, -0.01051927637308836, -0.010328017175197601, -0.010136757045984268, -0.00994549784809351, -0.009754238650202751, -0.009562978520989418, -0.00937171932309866, -0.009180460125207901, -0.008989199995994568, -0.00879794079810381, -0.008606680668890476, -0.008415421470999718, -0.008224161341786385, -0.008032902143895626, -0.007841642946004868, -0.007650382816791534, -0.007459123618900776, -0.00726786395534873, -0.007076604291796684, -0.0068853446282446384, -0.006694084964692593, -0.006502825766801834, -0.006311566103249788, -0.0061203064396977425, -0.005929046776145697, -0.005737787112593651, -0.005546527914702892, -0.0053552682511508465, -0.005164008587598801, -0.004972748924046755, -0.004781489260494709, -0.0045902300626039505, -0.004398970399051905, -0.004207710735499859, -0.004016451071947813, -0.003825191408395767, -0.003633931977674365, -0.0034426723141223192, -0.003251412883400917, -0.0030601532198488712, -0.0028688935562968254, -0.0026776341255754232, -0.0024863744620233774, -0.0022951150313019753, -0.0021038553677499294, -0.0019125957041978836, -0.0017213361570611596, -0.0015300766099244356, -0.0013388170627877116, -0.0011475575156509876, -0.0009562978520989418, -0.0007650383049622178, -0.0005737787578254938, -0.0003825191524811089, -0.00019125957624055445, 0.0]}, "gradients/critic2.fc2.bias": {"_type": "histogram", "values": [4.0, 4.0, 4.0, 6.0, 9.0, 10.0, 14.0, 6.0, 14.0, 11.0, 10.0, 6.0, 4.0, 3.0, 1.0, 3.0, 3.0, 6.0, 5.0, 0.0, 1.0, 0.0, 1.0, 2.0, 1.0, 0.0, 0.0, 0.0, 0.0, 0.0, 0.0, 1.0, 1.0, 0.0, 0.0, 0.0, 0.0, 0.0, 0.0, 0.0, 0.0, 0.0, 0.0, 0.0, 0.0, 0.0, 0.0, 0.0, 0.0, 0.0, 0.0, 0.0, 0.0, 0.0, 0.0, 0.0, 0.0, 0.0, 0.0, 0.0, 0.0, 0.0, 0.0, 126.0], "bins": [-0.0002992836816702038, -0.0002946073655039072, -0.00028993107844144106, -0.00028525476227514446, -0.00028057844610884786, -0.0002759021590463817, -0.0002712258428800851, -0.0002665495267137885, -0.0002618732105474919, -0.00025719692348502576, -0.00025252060731872916, -0.00024784429115243256, -0.0002431679895380512, -0.00023849168792366982, -0.00023381537175737321, -0.00022913907014299184, -0.00022446276852861047, -0.00021978645236231387, -0.00021511013619601727, -0.00021043384913355112, -0.00020575753296725452, -0.00020108121680095792, -0.00019640491518657655, -0.00019172861357219517, -0.00018705229740589857, -0.0001823759957915172, -0.00017769969417713583, -0.00017302337801083922, -0.00016834707639645785, -0.00016367076023016125, -0.00015899445861577988, -0.00015431814244948328, -0.0001496418408351019, -0.00014496553922072053, -0.00014028922305442393, -0.00013561292144004256, -0.00013093660527374595, -0.00012626030365936458, -0.0001215839947690256, -0.00011690768587868661, -0.00011223138426430523, -0.00010755507537396625, -0.00010287876648362726, -9.820245759328827e-05, -9.352614870294929e-05, -8.88498398126103e-05, -8.417353819822893e-05, -7.949722930788994e-05, -7.482092041755095e-05, -7.014461152721196e-05, -6.546830263687298e-05, -6.07919973845128e-05, -5.611569213215262e-05, -5.143938324181363e-05, -4.676307435147464e-05, -4.208676909911446e-05, -3.7410460208775476e-05, -3.273415131843649e-05, -2.805784606607631e-05, -2.338153717573732e-05, -1.8705230104387738e-05, -1.4028923033038154e-05, -9.352615052193869e-06, -4.6763075260969345e-06, 0.0]}, "gradients/critic2.fc2.weight": {"_type": "histogram", "values": [17.0, 26.0, 41.0, 64.0, 95.0, 119.0, 159.0, 209.0, 259.0, 305.0, 402.0, 431.0, 476.0, 459.0, 389.0, 417.0, 449.0, 524.0, 563.0, 574.0, 584.0, 510.0, 517.0, 488.0, 439.0, 471.0, 498.0, 456.0, 437.0, 467.0, 437.0, 354.0, 349.0, 371.0, 406.0, 311.0, 386.0, 319.0, 308.0, 366.0, 275.0, 601.0, 460.0, 78.0, 46290.0, 114.0, 447.0, 246.0, 504.0, 504.0, 244.0, 194.0, 134.0, 305.0, 267.0, 77.0, 87.0, 90.0, 46.0, 11.0, 25.0, 37.0, 34.0, 14.0], "bins": [-0.00016023844364099205, -0.00015667387924622744, -0.00015310931485146284, -0.00014954475045669824, -0.00014598018606193364, -0.00014241562166716903, -0.00013885105727240443, -0.00013528649287763983, -0.00013172192848287523, -0.00012815737864002585, -0.00012459279969334602, -0.00012102824257453904, -0.00011746367817977443, -0.00011389911378500983, -0.00011033455666620284, -0.00010676999227143824, -0.00010320542787667364, -9.964086348190904e-05, -9.607629908714443e-05, -9.251173469237983e-05, -8.894717029761523e-05, -8.538260590285063e-05, -8.181804150808603e-05, -7.825347711332142e-05, -7.468891271855682e-05, -7.112434832379222e-05, -6.755978392902762e-05, -6.399522681022063e-05, -6.043066241545603e-05, -5.6866098020691425e-05, -5.330153362592682e-05, -4.973696923116222e-05, -4.617240483639762e-05, -4.2607840441633016e-05, -3.9043276046868414e-05, -3.547871165210381e-05, -3.191414725733921e-05, -2.8349582862574607e-05, -2.478502574376762e-05, -2.1220461349003017e-05, -1.7655896954238415e-05, -1.4091332559473813e-05, -1.052676816470921e-05, -6.962203769944608e-06, -3.397639375180006e-06, 1.6692501958459616e-07, 3.7314894143491983e-06, 7.2960501711349934e-06, 1.0860614565899596e-05, 1.4425178960664198e-05, 1.79897433554288e-05, 2.1554304112214595e-05, 2.5118868506979197e-05, 2.86834329017438e-05, 3.22479972965084e-05, 3.5812561691273004e-05, 3.9377126086037606e-05, 4.294169048080221e-05, 4.6506251237588e-05, 5.0070815632352605e-05, 5.363538002711721e-05, 5.7199940783903e-05, 6.0764505178667605e-05, 6.432906957343221e-05, 6.789363396819681e-05]}, "gradients/critic2.fc1.bias": {"_type": "histogram", "values": [1.0, 0.0, 0.0, 0.0, 0.0, 0.0, 0.0, 3.0, 0.0, 0.0, 0.0, 0.0, 0.0, 0.0, 0.0, 2.0, 0.0, 0.0, 0.0, 0.0, 0.0, 1.0, 1.0, 0.0, 1.0, 0.0, 0.0, 1.0, 1.0, 0.0, 6.0, 7.0, 5.0, 14.0, 11.0, 19.0, 12.0, 14.0, 13.0, 4.0, 9.0, 7.0, 1.0, 1.0, 1.0, 1.0, 0.0, 0.0, 0.0, 0.0, 0.0, 0.0, 1.0, 1.0, 107.0, 1.0, 0.0, 2.0, 3.0, 1.0, 0.0, 2.0, 1.0, 1.0], "bins": [-0.0020316888112574816, -0.001994275487959385, -0.0019568621646612883, -0.0019194487249478698, -0.0018820354016497731, -0.0018446220783516765, -0.0018072087550535798, -0.0017697954317554832, -0.0017323819920420647, -0.001694968668743968, -0.0016575553454458714, -0.0016201420221477747, -0.001582728698849678, -0.0015453153755515814, -0.0015079020522534847, -0.0014704886125400662, -0.0014330752892419696, -0.001395661965943873, -0.0013582485262304544, -0.0013208352029323578, -0.0012834218796342611, -0.0012460085563361645, -0.0012085952330380678, -0.0011711819097399712, -0.0011337685864418745, -0.0010963552631437778, -0.0010589418234303594, -0.0010215285001322627, -0.000984115176834166, -0.0009467018535360694, -0.0009092884138226509, -0.0008718750905245543, -0.0008344617672264576, -0.0007970484439283609, -0.0007596351206302643, -0.0007222216809168458, -0.0006848083576187491, -0.0006473950343206525, -0.0006099817110225558, -0.0005725682713091373, -0.0005351549480110407, -0.000497741624712944, -0.0004603282723110169, -0.00042291494901292026, -0.0003855016257148236, -0.00034808824420906603, -0.0003106749209109694, -0.0002732615394052118, -0.00023584821610711515, -0.0001984348928090185, -0.00016102151130326092, -0.00012360818800516427, -8.619483560323715e-05, -4.878148320131004e-05, -1.1368159903213382e-05, 2.6045192498713732e-05, 6.345854490064085e-05, 0.00010087189730256796, 0.00013828523515257984, 0.00017569857300259173, 0.00021311192540451884, 0.00025052527780644596, 0.00028793863020837307, 0.0003253519535064697, 0.00036276530590839684]}, "gradients/critic2.fc1.weight": {"_type": "histogram", "values": [1.0, 0.0, 0.0, 0.0, 1.0, 1.0, 1.0, 2.0, 1.0, 0.0, 1.0, 1.0, 0.0, 4.0, 1.0, 4.0, 1.0, 2.0, 2.0, 2.0, 0.0, 26.0, 75.0, 35.0, 12.0, 548.0, 59.0, 84.0, 9.0, 25.0, 44.0, 50.0, 16.0, 1.0, 2.0, 1.0, 0.0, 0.0, 2.0, 1.0, 0.0, 0.0, 1.0, 0.0, 1.0, 1.0, 1.0, 0.0, 0.0, 1.0, 0.0, 0.0, 1.0, 0.0, 0.0, 0.0, 1.0, 1.0, 0.0, 0.0, 0.0, 0.0, 0.0, 1.0], "bins": [-0.0015897133853286505, -0.0015282329404726624, -0.0014667524956166744, -0.0014052720507606864, -0.0013437916059046984, -0.0012823111610487103, -0.0012208307161927223, -0.0011593502713367343, -0.0010978698264807463, -0.0010363893816247582, -0.0009749089367687702, -0.0009134284919127822, -0.0008519480470567942, -0.0007904676022008061, -0.0007289871573448181, -0.0006675067124888301, -0.0006060262676328421, -0.000544545822776854, -0.000483065377920866, -0.000421584933064878, -0.00036010448820888996, -0.00029862404335290194, -0.0002371435984969139, -0.00017566315364092588, -0.00011418270878493786, -5.270226392894983e-05, 8.778180927038193e-06, 7.025862578302622e-05, 0.00013173907063901424, 0.00019321951549500227, 0.0002546999603509903, 0.0003161804052069783, 0.0003776606172323227, 0.0004391410620883107, 0.0005006215069442987, 0.0005621019518002868, 0.0006235823966562748, 0.0006850628415122628, 0.0007465432863682508, 0.0008080237312242389, 0.0008695041760802269, 0.0009309846209362149, 0.000992465065792203, 0.001053945510648191, 0.001115425955504179, 0.001176906400360167, 0.001238386845216155, 0.001299867290072143, 0.001361347734928131, 0.0014228281797841191, 0.0014843086246401072, 0.0015457890694960952, 0.0016072695143520832, 0.0016687499592080712, 0.0017302304040640593, 0.0017917108489200473, 0.0018531912937760353, 0.0019146717386320233, 0.0019761521834880114, 0.002037632744759321, 0.0020991130731999874, 0.0021605934016406536, 0.0022220739629119635, 0.0022835545241832733, 0.0023450348526239395]}, "gradients/actor_local.fc3.bias": {"_type": "histogram", "values": [1.0, 0.0, 0.0, 0.0, 0.0, 0.0, 0.0, 0.0, 0.0, 0.0, 0.0, 0.0, 0.0, 0.0, 0.0, 0.0, 0.0, 0.0, 0.0, 0.0, 0.0, 0.0, 0.0, 0.0, 0.0, 0.0, 0.0, 0.0, 0.0, 0.0, 0.0, 0.0, 0.0, 0.0, 0.0, 0.0, 0.0, 0.0, 0.0, 0.0, 0.0, 0.0, 0.0, 0.0, 0.0, 0.0, 0.0, 0.0, 0.0, 0.0, 0.0, 0.0, 0.0, 0.0, 0.0, 0.0, 0.0, 0.0, 0.0, 0.0, 0.0, 0.0, 0.0, 1.0], "bins": [-0.002205664524808526, -0.0021367373410612345, -0.0020678103901445866, -0.001998883206397295, -0.001929956255480647, -0.0018610290717333555, -0.0017921020044013858, -0.001723174937069416, -0.0016542478697374463, -0.0015853208024054766, -0.0015163937350735068, -0.001447466667741537, -0.0013785394839942455, -0.0013096125330775976, -0.001240685349330306, -0.0011717582819983363, -0.0011028312146663666, -0.0010339041473343968, -0.0009649770800024271, -0.0008960500126704574, -0.0008271229453384876, -0.0007581957615911961, -0.0006892686942592263, -0.0006203416269272566, -0.0005514145595952868, -0.0004824874922633171, -0.00041356042493134737, -0.00034463335759937763, -0.00027570617385208607, -0.00020677922293543816, -0.0001378520391881466, -6.892508827149868e-05, 2.0954757928848267e-09, 6.892927922308445e-05, 0.00013785623013973236, 0.00020678341388702393, 0.00027571036480367184, 0.0003446375485509634, 0.00041356461588293314, 0.0004824916832149029, 0.0005514187505468726, 0.0006203458178788424, 0.0006892728852108121, 0.0007581999525427818, 0.0008271271362900734, 0.0008960542036220431, 0.0009649812709540129, 0.0010339083382859826, 0.0011028354056179523, 0.001171762472949922, 0.0012406895402818918, 0.0013096167240291834, 0.0013785436749458313, 0.0014474708586931229, 0.0015163979260250926, 0.0015853249933570623, 0.001654252060689032, 0.0017231791280210018, 0.0017921061953529716, 0.0018610332626849413, 0.0019299604464322329, 0.0019988873973488808, 0.0020678145810961723, 0.0021367415320128202, 0.002205668715760112]}, "gradients/actor_local.fc3.weight": {"_type": "histogram", "values": [4.0, 0.0, 1.0, 1.0, 0.0, 0.0, 6.0, 1.0, 2.0, 3.0, 3.0, 3.0, 8.0, 5.0, 1.0, 3.0, 1.0, 4.0, 8.0, 2.0, 9.0, 5.0, 3.0, 8.0, 4.0, 13.0, 11.0, 8.0, 13.0, 11.0, 20.0, 155.0, 35.0, 20.0, 11.0, 13.0, 8.0, 11.0, 13.0, 4.0, 8.0, 3.0, 5.0, 9.0, 2.0, 8.0, 4.0, 1.0, 3.0, 1.0, 5.0, 8.0, 3.0, 3.0, 3.0, 2.0, 1.0, 6.0, 0.0, 0.0, 1.0, 1.0, 0.0, 4.0], "bins": [-0.0007675977540202439, -0.000743610318750143, -0.0007196228252723813, -0.0006956353900022805, -0.0006716479547321796, -0.0006476604612544179, -0.0006236730259843171, -0.0005996855907142162, -0.0005756980972364545, -0.0005517106037586927, -0.0005277231684885919, -0.0005037357332184911, -0.0004797482688445598, -0.0004557608044706285, -0.00043177336920052767, -0.0004077859048265964, -0.0003837984404526651, -0.0003598109760787338, -0.0003358235117048025, -0.0003118360764347017, -0.0002878486120607704, -0.0002638611476868391, -0.00023987371241673827, -0.00021588621893897653, -0.0001918987836688757, -0.00016791134839877486, -0.00014392385492101312, -0.00011993641965091228, -9.594898438081145e-05, -7.196149090304971e-05, -4.7974055632948875e-05, -2.398656215518713e-05, 8.149072527885437e-10, 2.398825017735362e-05, 4.7975743655115366e-05, 7.19631789252162e-05, 9.595067240297794e-05, 0.00011993810767307878, 0.0001439255429431796, 0.00016791303642094135, 0.00019190047169104218, 0.00021588790696114302, 0.00023987540043890476, 0.0002638628357090056, 0.0002878503000829369, 0.00031183776445686817, 0.000335825199726969, 0.0003598126641009003, 0.0003838001284748316, 0.00040778759284876287, 0.00043177505722269416, 0.000455762492492795, 0.0004797499568667263, 0.0005037374212406576, 0.0005277248565107584, 0.0005517123499885201, 0.000575699785258621, 0.0005996872205287218, 0.0006236747140064836, 0.0006476621492765844, 0.0006716495845466852, 0.000695637078024447, 0.0007196245132945478, 0.0007436120067723095, 0.0007675994420424104]}, "gradients/actor_local.fc2.bias": {"_type": "histogram", "values": [4.0, 0.0, 0.0, 0.0, 2.0, 0.0, 1.0, 0.0, 0.0, 1.0, 1.0, 0.0, 2.0, 4.0, 1.0, 1.0, 1.0, 1.0, 0.0, 1.0, 7.0, 2.0, 4.0, 1.0, 3.0, 8.0, 7.0, 9.0, 11.0, 13.0, 88.0, 9.0, 13.0, 7.0, 6.0, 5.0, 3.0, 7.0, 1.0, 6.0, 3.0, 3.0, 2.0, 5.0, 1.0, 0.0, 0.0, 1.0, 0.0, 1.0, 0.0, 1.0, 2.0, 1.0, 3.0, 0.0, 0.0, 1.0, 0.0, 0.0, 0.0, 1.0, 0.0, 1.0], "bins": [-0.0002210701204603538, -0.00021376728545874357, -0.00020646443590521812, -0.0001991616009036079, -0.00019185876590199769, -0.00018455591634847224, -0.00017725308134686202, -0.0001699502463452518, -0.00016264739679172635, -0.0001553445472382009, -0.00014804171223659068, -0.00014073887723498046, -0.00013343602768145502, -0.0001261331926798448, -0.00011883035767823458, -0.00011152751540066674, -0.00010422467312309891, -9.692183812148869e-05, -8.961898856796324e-05, -8.231615356635302e-05, -7.501330401282758e-05, -6.771046901121736e-05, -6.0407634009607136e-05, -5.310478445608169e-05, -4.580194945447147e-05, -3.849911445286125e-05, -3.11962648993358e-05, -2.3893429897725582e-05, -1.6590594896115363e-05, -9.287745342589915e-06, -1.9849103409796953e-06, 5.3179392125457525e-06, 1.2620759662240744e-05, 1.9923594663850963e-05, 2.722644421737641e-05, 3.452927921898663e-05, 4.183212877251208e-05, 4.91349637741223e-05, 5.643779877573252e-05, 6.374064832925797e-05, 7.104348333086818e-05, 7.83463183324784e-05, 8.564916788600385e-05, 9.295200288761407e-05, 0.00010025483788922429, 0.00010755768744274974, 0.00011486052244435996, 0.0001221633719978854, 0.00012946620699949563, 0.00013676905655302107, 0.0001440718915546313, 0.0001513747265562415, 0.00015867757610976696, 0.00016598041111137718, 0.0001732832461129874, 0.00018058609566651285, 0.00018788893066812307, 0.00019519176566973329, 0.00020249461522325873, 0.00020979745022486895, 0.00021710028522647917, 0.00022440313478000462, 0.00023170596978161484, 0.0002390088193351403, 0.0002463116543367505]}, "gradients/actor_local.fc2.weight": {"_type": "histogram", "values": [9.0, 6.0, 5.0, 2.0, 17.0, 30.0, 30.0, 26.0, 32.0, 60.0, 71.0, 46.0, 69.0, 90.0, 93.0, 124.0, 162.0, 186.0, 227.0, 242.0, 278.0, 293.0, 394.0, 487.0, 569.0, 716.0, 1061.0, 1409.0, 2114.0, 4544.0, 40245.0, 3364.0, 1939.0, 1341.0, 970.0, 813.0, 655.0, 488.0, 417.0, 353.0, 259.0, 212.0, 142.0, 150.0, 124.0, 117.0, 101.0, 79.0, 86.0, 69.0, 40.0, 38.0, 35.0, 26.0, 21.0, 13.0, 14.0, 12.0, 9.0, 3.0, 1.0, 2.0, 4.0, 2.0], "bins": [-0.00013115251203998923, -0.00012682001397479326, -0.00012248751590959728, -0.0001181550178444013, -0.00011382251977920532, -0.00010949002171400934, -0.00010515753092477098, -0.000100825032859575, -9.649253479437903e-05, -9.216003672918305e-05, -8.782753866398707e-05, -8.349504787474871e-05, -7.916254980955273e-05, -7.483005174435675e-05, -7.049755367916077e-05, -6.61650556139648e-05, -6.183255754876882e-05, -5.750005948357284e-05, -5.316756141837686e-05, -4.8835063353180885e-05, -4.450256528798491e-05, -4.0170074498746544e-05, -3.5837576433550566e-05, -3.150507836835459e-05, -2.717258030315861e-05, -2.2840082237962633e-05, -1.8507584172766656e-05, -1.4175086107570678e-05, -9.842595318332314e-06, -5.510097253136337e-06, -1.1775991879403591e-06, 3.1548988772556186e-06, 7.487396942451596e-06, 1.1819895007647574e-05, 1.615239307284355e-05, 2.048489113803953e-05, 2.4817389203235507e-05, 2.914987999247387e-05, 3.348237805766985e-05, 3.7814876122865826e-05, 4.2147374188061804e-05, 4.647987225325778e-05, 5.081237031845376e-05, 5.514486838364974e-05, 5.94773591728881e-05, 6.380985723808408e-05, 6.814235530328006e-05, 7.247485336847603e-05, 7.680735143367201e-05, 8.113984949886799e-05, 8.547234756406397e-05, 8.980484562925994e-05, 9.413734369445592e-05, 9.84698417596519e-05, 0.00010280233254889026, 0.00010713483061408624, 0.00011146732867928222, 0.0001157998267444782, 0.00012013232480967417, 0.00012446481559891254, 0.00012879731366410851, 0.0001331298117293045, 0.00013746230979450047, 0.00014179480785969645, 0.00014612730592489243]}, "gradients/actor_local.fc1.bias": {"_type": "histogram", "values": [1.0, 1.0, 0.0, 1.0, 0.0, 1.0, 0.0, 0.0, 0.0, 2.0, 0.0, 1.0, 0.0, 0.0, 0.0, 2.0, 3.0, 1.0, 1.0, 1.0, 3.0, 3.0, 3.0, 4.0, 4.0, 3.0, 7.0, 1.0, 6.0, 8.0, 9.0, 15.0, 19.0, 23.0, 29.0, 13.0, 11.0, 18.0, 8.0, 4.0, 5.0, 7.0, 7.0, 4.0, 6.0, 3.0, 1.0, 2.0, 2.0, 1.0, 3.0, 2.0, 1.0, 0.0, 1.0, 0.0, 0.0, 0.0, 1.0, 0.0, 0.0, 0.0, 2.0, 2.0], "bins": [-8.634957339381799e-05, -8.381722727790475e-05, -8.128487388603389e-05, -7.875252777012065e-05, -7.622018165420741e-05, -7.368782826233655e-05, -7.115548214642331e-05, -6.862313603051007e-05, -6.609078263863921e-05, -6.355842924676836e-05, -6.102608313085511e-05, -5.849373701494187e-05, -5.596138726104982e-05, -5.342903750715777e-05, -5.089669139124453e-05, -4.836434163735248e-05, -4.583199188346043e-05, -4.329964212956838e-05, -4.0767292375676334e-05, -3.823494625976309e-05, -3.570259650587104e-05, -3.3170246751978993e-05, -3.063790063606575e-05, -2.8105550882173702e-05, -2.5573201128281653e-05, -2.304085501236841e-05, -2.0508501620497555e-05, -1.7976155504584312e-05, -1.544380938867107e-05, -1.2911455996800214e-05, -1.0379109880886972e-05, -7.846756489016116e-06, -5.3144103731028736e-06, -2.7820642571896315e-06, -2.497108653187752e-07, 2.282635250594467e-06, 4.814988642465323e-06, 7.347334758378565e-06, 9.879680874291807e-06, 1.2412034266162664e-05, 1.4944380382075906e-05, 1.7476730135967955e-05, 2.0009079889860004e-05, 2.2541426005773246e-05, 2.5073775759665295e-05, 2.7606125513557345e-05, 3.0138471629470587e-05, 3.2670821383362636e-05, 3.5203171137254685e-05, 3.7735520891146734e-05, 4.0267870645038784e-05, 4.2800216760952026e-05, 4.5332566514844075e-05, 4.7864916268736124e-05, 5.0397262384649366e-05, 5.2929612138541415e-05, 5.5461961892433465e-05, 5.7994311646325514e-05, 6.052666140021756e-05, 6.30590075161308e-05, 6.559136090800166e-05, 6.81237070239149e-05, 7.065605313982815e-05, 7.3188406531699e-05, 7.572075264761224e-05]}, "gradients/actor_local.fc1.weight": {"_type": "histogram", "values": [1.0, 0.0, 0.0, 0.0, 0.0, 0.0, 0.0, 0.0, 0.0, 0.0, 0.0, 2.0, 0.0, 0.0, 0.0, 3.0, 1.0, 2.0, 0.0, 2.0, 2.0, 3.0, 5.0, 3.0, 7.0, 12.0, 11.0, 7.0, 8.0, 13.0, 22.0, 22.0, 27.0, 35.0, 88.0, 408.0, 133.0, 38.0, 35.0, 21.0, 17.0, 23.0, 14.0, 13.0, 10.0, 4.0, 4.0, 3.0, 7.0, 4.0, 1.0, 3.0, 3.0, 1.0, 1.0, 1.0, 0.0, 0.0, 1.0, 1.0, 0.0, 0.0, 0.0, 2.0], "bins": [-5.863800106453709e-05, -5.6992063036886975e-05, -5.534612500923686e-05, -5.3700190619565547e-05, -5.205425259191543e-05, -5.040831456426531e-05, -4.876237653661519e-05, -4.7116438508965075e-05, -4.547050048131496e-05, -4.3824566091643646e-05, -4.217862806399353e-05, -4.053269003634341e-05, -3.888675200869329e-05, -3.724081761902198e-05, -3.5594879591371864e-05, -3.3948941563721746e-05, -3.230300353607163e-05, -3.065706550842151e-05, -2.9011129299760796e-05, -2.7365193091100082e-05, -2.5719255063449964e-05, -2.4073317035799846e-05, -2.2427379008149728e-05, -2.078144098049961e-05, -1.9135502952849492e-05, -1.748956856317818e-05, -1.5843630535528064e-05, -1.4197692507877946e-05, -1.2551754480227828e-05, -1.090581645257771e-05, -9.2598820629064e-06, -7.6139440352562815e-06, -5.968006007606164e-06, -4.322067979956046e-06, -2.676129952305928e-06, -1.030195562634617e-06, 6.157424650155008e-07, 2.2616804926656187e-06, 3.9076185203157365e-06, 5.553556547965854e-06, 7.199490937637165e-06, 8.845428965287283e-06, 1.0491366992937401e-05, 1.2137305020587519e-05, 1.3783243048237637e-05, 1.5429181075887755e-05, 1.707511728454847e-05, 1.8721053493209183e-05, 2.03669915208593e-05, 2.201292954850942e-05, 2.3658865757170133e-05, 2.530480378482025e-05, 2.6950739993480965e-05, 2.8596678021131083e-05, 3.02426160487812e-05, 3.188855407643132e-05, 3.353448846610263e-05, 3.518042649375275e-05, 3.6826364521402866e-05, 3.8472302549052984e-05, 4.01182405767031e-05, 4.176417860435322e-05, 4.341011299402453e-05, 4.505605102167465e-05, 4.6701989049324766e-05]}, "Reward": 28.0, "Average10": 18.25, "Steps": 73, "Policy Loss": -2.592244863510132, "Alpha Loss": 2.5983972549438477, "Bellmann error 1": 0.03688965365290642, "Bellmann error 2": 0.03614460304379463, "Alpha": 0.9648227691650391, "Episode": 4, "Buffer size": 10073, "_runtime": 5.4396750926971436, "_step": 4, "_wandb": {"runtime": 4}}